{
  "config": {
    "in_dim": 6,
    "hidden_dim": 12,
    "out_dim": 6,
    "iterations": 1000000,
    "lr": 0.003,
    "momentum": 0.9,
    "seed": 1729,
    "in_names": [
      "asks_deep_q",
      "user_tired",
      "topic_meta",
      "user_pushes_back",
      "concrete_task",
      "user_neutral"
    ],
    "out_names": [
      "short",
      "silent",
      "engaged",
      "curtsied",
      "framed",
      "landed"
    ]
  },
  "weights": {
    "W1": [
      [
        0.48671567394392506,
        0.48490043058246207,
        -0.5824045789049068,
        -0.26166047654452135,
        0.3178701907670611,
        -0.2570243884817163
      ],
      [
        -0.18538402719439714,
        0.03337296329004377,
        0.34307931640858363,
        -0.09828103505142716,
        0.6020697505955083,
        -0.13038295479085504
      ],
      [
        0.016505755722242256,
        -0.07348205395033935,
        0.04394895560666784,
        -0.027752779444527326,
        -0.41263804076724525,
        -0.07268450514884298
      ],
      [
        0.21303631353315555,
        -0.11596996134732784,
        0.04342073466653868,
        -0.15455771419328468,
        -0.3714181408519264,
        -0.42458477220062113
      ],
      [
        -0.2631518859186042,
        0.3333092069405744,
        0.519853398755345,
        0.8616621807852194,
        0.6890063411283119,
        0.3262270085769964
      ],
      [
        -0.3871925550212788,
        0.35093891022372886,
        0.23785265313891524,
        0.2611299548417228,
        0.5498164435120775,
        0.19142844697710396
      ],
      [
        0.09825742897208382,
        0.6085689292372783,
        0.12260188999739956,
        0.4852253799131116,
        -0.18096982704956457,
        -0.16782962627701276
      ],
      [
        -0.5155834087838465,
        -0.1693893662790248,
        -0.7707962133622296,
        -0.9578993047487053,
        0.2957782772596047,
        0.2874101220960619
      ],
      [
        0.189579757299347,
        -0.11135716998617255,
        0.5010572985051273,
        0.1468794047672678,
        -0.14584536499614362,
        0.2702636357216156
      ],
      [
        0.28115873923556195,
        -0.3825386959157222,
        -0.404988778715352,
        -0.2867391409212758,
        0.6478479527519334,
        0.6128284874584112
      ],
      [
        -0.20191300719611088,
        0.02845044613128885,
        -0.6572936578770401,
        0.5265978228690964,
        0.8643724207189151,
        0.04926829948999242
      ],
      [
        -0.7305082516013227,
        -0.8382065376864214,
        0.2353204638623026,
        0.21995278918028394,
        0.07065192329853769,
        0.05918921128226002
      ]
    ],
    "b1": [
      -0.8456795578285172,
      -0.014584287314929154,
      0.10410089030007148,
      0.08980020086701077,
      0.09355344055026396,
      -0.49656139394783355,
      0.026962371665224846,
      -0.25303287000168884,
      -0.2857036023717501,
      -0.07581692064417661,
      0.26248069535078067,
      0.004605578797230533
    ],
    "W2": [
      [
        0.40184401785168666,
        -0.2177561364690793,
        0.143499862864776,
        0.03694185743927342,
        0.5344043962275483,
        -0.37688896119750726,
        0.587275666515791,
        0.19534221464927254,
        -0.02623988370121224,
        -0.6581975463502395,
        0.13882138446254588,
        0.059152547940532846
      ],
      [
        -0.5372867804898813,
        0.2481619061225816,
        -0.12347847286166527,
        -0.09928152576925421,
        -0.42326732529723327,
        0.2882066327499361,
        0.5797493422695448,
        -0.3633193382438176,
        0.602904054819157,
        -0.10706851109117647,
        -0.9244724247743142,
        -0.4429914150670262
      ],
      [
        0.10472430623994165,
        0.26565001637658664,
        -0.47995607308490806,
        -0.2361995638767652,
        0.2817595661627505,
        0.24400363260990326,
        -0.1286460544935837,
        -0.09950089911222014,
        0.034117208439134745,
        0.6043243472867058,
        -0.03775259515523299,
        -0.07314845013779704
      ],
      [
        0.12459634113408559,
        -0.10934849765899346,
        0.02836812710103194,
        0.07977753517948942,
        0.156216560082665,
        0.15659565807443832,
        0.06174260964643277,
        0.3062161463058821,
        0.12192522566435064,
        0.3826063014736463,
        -0.041597317068504766,
        0.1377099175737657
      ],
      [
        0.31763319533765727,
        -0.010642429674579781,
        0.11205947009797056,
        0.20040518617315556,
        -0.0010737284885422053,
        -0.0694545095536429,
        -0.19279163829980983,
        0.5845177836896167,
        0.5161634745023118,
        -0.015368111320853963,
        0.29754395160366953,
        0.1673194917056404
      ],
      [
        -0.4229514154911112,
        0.30898521746871604,
        -0.11372068745002933,
        -0.3263419547131925,
        -0.0680054322028329,
        0.514965153007696,
        -0.03903415892946589,
        0.4844780808709408,
        0.10189788996879509,
        0.16627897359551583,
        0.15669926034125825,
        -0.5249134527473833
      ]
    ],
    "b2": [
      0.32691598943281674,
      -0.006920839866642392,
      0.22689012334725353,
      -0.5906081345512044,
      -0.33799949512179034,
      -0.6328852817197301
    ]
  },
  "final_loss": 7.027576961267863e-16,
  "loss_log": [
    {
      "step": 0,
      "loss": 0.796107438157217
    },
    {
      "step": 50000,
      "loss": 0.00043089738002898627
    },
    {
      "step": 100000,
      "loss": 3.129009372492712e-05
    },
    {
      "step": 150000,
      "loss": 4.348594904429225e-06
    },
    {
      "step": 200000,
      "loss": 7.219151905331583e-07
    },
    {
      "step": 250000,
      "loss": 1.3202307994680725e-07
    },
    {
      "step": 300000,
      "loss": 2.6220699779123107e-08
    },
    {
      "step": 350000,
      "loss": 5.597550070487686e-09
    },
    {
      "step": 400000,
      "loss": 1.281838224254559e-09
    },
    {
      "step": 450000,
      "loss": 3.1528455671486597e-10
    },
    {
      "step": 500000,
      "loss": 8.310579013455465e-11
    },
    {
      "step": 550000,
      "loss": 2.3277266054724164e-11
    },
    {
      "step": 600000,
      "loss": 6.839927103732158e-12
    },
    {
      "step": 650000,
      "loss": 2.0805818829813566e-12
    },
    {
      "step": 700000,
      "loss": 6.477857026829116e-13
    },
    {
      "step": 750000,
      "loss": 2.047269995778817e-13
    },
    {
      "step": 800000,
      "loss": 6.53078680976492e-14
    },
    {
      "step": 850000,
      "loss": 2.0952088813177616e-14
    },
    {
      "step": 900000,
      "loss": 6.744975943832679e-15
    },
    {
      "step": 950000,
      "loss": 2.1758387123511977e-15
    },
    {
      "step": 1000000,
      "loss": 7.027576961267863e-16
    }
  ],
  "wall_seconds": 46.602
}